<Nnet> 
<Splice> 440 40 
[ -5 -4 -3 -2 -1 0 1 2 3 4 5 ]
<!EndOfComponent> 
<AddShift> 440 440 
<LearnRateCoef> 0  [ 0.002323077 0.0008590874 0.0003880331 0.0008887597 0.001237568 0.001405804 0.0005861683 0.0002119328 0.001170535 0.001235481 0.0004904197 0.0008208181 0.0005712734 0.0006320902 0.001384808 0.002213203 0.002062383 0.001425397 0.001540948 0.001553105 0.002170099 0.002609728 0.001829647 0.001411282 0.0006820607 0.0006232591 0.001182528 0.001805809 0.002355102 0.001693175 0.0009111844 0.001465966 0.001042711 0.001845703 0.002107051 0.001318712 0.0009220092 0.0004809701 0.000174946 0.0007217322 0.002318058 0.0008636651 0.0003970041 0.000907042 0.001262863 0.001438241 0.0006191448 0.0002554634 0.001218977 0.001282929 0.0005285101 0.0008599174 0.0006147834 0.0006801917 0.001428622 0.002257029 0.002115976 0.001484027 0.00161883 0.001651623 0.002264068 0.002699139 0.001911829 0.001483041 0.0007531893 0.0006964317 0.001258577 0.001884723 0.002432327 0.001757954 0.000967037 0.001519853 0.001092633 0.001893701 0.002152403 0.001359614 0.0009574865 0.0005163006 0.0002041084 0.0007533314 0.002333707 0.0008902418 0.0004231081 0.0009350444 0.001297958 0.001484216 0.0006653185 0.0003121315 0.001283818 0.001346365 0.0005795434 0.0009147009 0.0006725437 0.0007395698 0.001488318 0.002316687 0.002184086 0.001561772 0.001713397 0.001764632 0.00237096 0.002801295 0.002008558 0.001570484 0.000838555 0.0007843234 0.001347372 0.001976251 0.002525113 0.001839418 0.001040015 0.001590929 0.001160219 0.001956786 0.002214629 0.00141547 0.001009138 0.0005671443 0.0002504114 0.0007999602 0.002398642 0.0009514251 0.000475327 0.0009901694 0.001361868 0.001553618 0.0007333548 0.0003880545 0.001366748 0.001426824 0.0006515976 0.0009896688 0.0007506526 0.0008162191 0.001563081 0.00239737 0.002275142 0.001665253 0.001830592 0.00189858 0.002500871 0.002925685 0.002129292 0.001675198 0.0009440641 0.0008909712 0.001457052 0.002089313 0.002636367 0.001936433 0.001132741 0.00168102 0.001244946 0.002040679 0.002293588 0.001491407 0.001079597 0.000635031 0.0003153679 0.0008633285 0.00253777 0.001062199 0.0005644846 0.00107598 0.001450317 0.001643263 0.0008237852 0.0004837453 0.001470093 0.001528942 0.0007464589 0.001084369 0.000854129 0.0009194948 0.001667281 0.002505962 0.002395555 0.001797171 0.001975689 0.002056759 0.002654251 0.003071172 0.002271725 0.001804936 0.00107022 0.001020507 0.001590628 0.002225092 0.002771743 0.002059758 0.00124737 0.001796388 0.001352616 0.002145647 0.002394988 0.001587423 0.001170559 0.0007240874 0.0004007256 0.0009455689 0.002736718 0.001205749 0.0006779514 0.001181539 0.001562438 0.001761954 0.0009406122 0.0006038063 0.001594234 0.001651044 0.0008603255 0.001199777 0.0009762394 0.001044674 0.001795996 0.002637486 0.002543171 0.001957672 0.002147315 0.002238236 0.002828354 0.003239582 0.002435541 0.001954654 0.001215997 0.00117452 0.001750231 0.002380074 0.002925921 0.002204824 0.001383484 0.001933703 0.00148339 0.002274021 0.002519582 0.001706319 0.001282767 0.0008370935 0.0005090609 0.001049851 0.002935665 0.0013493 0.0007914183 0.001287098 0.001674559 0.001880645 0.001057439 0.0007238673 0.001718374 0.001773146 0.0009741921 0.001315185 0.00109835 0.001169852 0.001924712 0.002769011 0.002690786 0.002118172 0.002318942 0.002419713 0.003002456 0.003407992 0.002599358 0.002104371 0.001361774 0.001328533 0.001909833 0.002535057 0.0030801 0.002349889 0.001519599 0.002071018 0.001614163 0.002402395 0.002644176 0.001825215 0.001394975 0.0009500995 0.0006173961 0.001154133 0.003144249 0.001496182 0.0009076039 0.001393865 0.001782039 0.00199367 0.001173738 0.0008450931 0.001842072 0.001896436 0.001091042 0.001433911 0.001222129 0.001295087 0.002056758 0.002899247 0.002837605 0.002280105 0.00249229 0.002596691 0.003177327 0.003576007 0.002761379 0.00225409 0.00150698 0.00148121 0.002069904 0.002692548 0.003234018 0.002494756 0.00165603 0.0022079 0.001744157 0.002528862 0.002764894 0.001940152 0.001505804 0.001063188 0.0007288815 0.001261447 0.003355569 0.001645529 0.001023738 0.001499141 0.001892101 0.002108467 0.001294211 0.0009692305 0.001967822 0.002022889 0.001209322 0.001554189 0.001347504 0.001420839 0.002187652 0.00302973 0.002984962 0.002444338 0.002670974 0.002779619 0.003355766 0.0037485 0.00292712 0.002406275 0.001654502 0.001635225 0.002231414 0.002849056 0.003387235 0.002639543 0.001795067 0.002342567 0.001873637 0.002656674 0.002888114 0.002057517 0.001618618 0.001176916 0.0008410569 0.001369188 0.003557115 0.001789035 0.001135145 0.001600304 0.002000644 0.002226224 0.001413378 0.001091799 0.002094095 0.002148582 0.001328407 0.00167043 0.001469855 0.00154814 0.002319703 0.003161089 0.003132535 0.00260718 0.00284638 0.002959628 0.003535532 0.00392249 0.003093699 0.002561273 0.001803252 0.001791258 0.002394839 0.003005645 0.003538528 0.002785682 0.001932555 0.002482896 0.002008619 0.002787476 0.003014594 0.002176554 0.001732454 0.001292986 0.0009542972 0.001479019 0.003769529 0.001943189 0.0012529 0.001704316 0.002111198 0.002346009 0.001534919 0.001214391 0.002224718 0.002278724 0.001446764 0.001788889 0.001596312 0.00167986 0.002450452 0.003294679 0.003279441 0.00277398 0.003026713 0.003145409 0.003721202 0.004096822 0.003259086 0.002715377 0.001951172 0.001946623 0.002559669 0.003160533 0.003692902 0.002935481 0.00207504 0.002622874 0.00214351 0.002919564 0.003140352 0.002295068 0.001847942 0.001409021 0.001068159 0.001589457 ]
<!EndOfComponent> 
<Rescale> 440 440 
<LearnRateCoef> 0  [ 1.001485 1.000429 1.000038 1.000332 1.00084 1.00115 1.000456 1.000314 1.000795 1.000838 1.000267 1.000637 1.000107 1.000058 1.000792 1.001653 1.001866 1.001511 1.001022 1.000911 1.001327 1.001503 1.001123 1.000715 1.000386 1.000558 1.000924 1.000895 1.001091 1.001306 1.000645 1.000852 1.00065 1.000563 1.000664 1.00107 1.000701 1.000165 1.000234 1.000198 1.001478 1.000418 1.000021 1.000301 1.000802 1.001105 1.000409 1.000254 1.000731 1.00078 1.00022 1.000588 1.000056 1.000007 1.000746 1.001607 1.001812 1.001454 1.000946 1.000817 1.001239 1.001416 1.001041 1.000641 1.000311 1.00048 1.000844 1.000815 1.001013 1.00124 1.000589 1.000799 1.000601 1.000516 1.000621 1.001032 1.000669 1.000134 1.000209 1.000171 1.001378 1.000344 0.9999645 1.000242 1.000735 1.001027 1.000332 1.000164 1.000635 1.000688 1.000144 1.000507 0.9999737 0.9999248 1.000664 1.001526 1.001722 1.001354 1.000831 1.00069 1.00112 1.001297 1.000922 1.000531 1.000202 1.000365 1.000731 1.000702 1.000898 1.00114 1.000497 1.000711 1.000517 1.000438 1.000547 1.000965 1.000608 1.000072 1.000153 1.000116 1.001081 1.000146 0.9998292 1.000113 1.000597 1.000886 1.000195 1.000021 1.00049 1.000553 1.00002 1.000378 0.9998424 0.9997966 1.000536 1.001391 1.001573 1.001187 1.000659 1.00051 1.000947 1.001123 1.000749 1.000373 1.000043 1.000203 1.000565 1.000539 1.000738 1.000994 1.000357 1.000576 1.00039 1.000315 1.000433 1.000856 1.000504 0.999971 1.000057 1.000025 1.000514 0.9998006 0.999597 0.9999005 1.000386 1.000681 0.9999942 0.9998211 1.000287 1.000359 0.9998387 1.000194 0.9996493 0.9996051 1.000339 1.001189 1.001354 1.000946 1.000415 1.000271 1.000714 1.000894 1.000519 1.000156 0.9998299 0.9999798 1.000333 1.000315 1.000517 1.000786 1.000162 1.000383 1.000209 1.000143 1.000271 1.0007 1.000355 0.9998221 0.9999121 0.9998931 0.9996983 0.999323 0.9992824 0.9996234 1.000108 1.0004 0.9997255 0.9995576 1.000029 1.000113 0.9996085 0.9999609 0.9994044 0.9993584 1.000083 1.000926 1.001065 1.000631 1.000103 0.9999744 1.00043 1.000609 1.000234 0.9998863 0.999566 0.9996974 1.000038 1.000039 1.000248 1.000529 0.9999165 1.00014 0.9999788 0.9999234 1.000064 1.000499 1.00016 0.9996266 0.999722 0.9997188 0.9988845 0.9988461 0.9989681 0.9993466 0.9998305 1.000121 0.9994571 0.9992944 0.9997719 0.9998683 0.9993785 0.9997277 0.9991598 0.9991119 0.9998267 1.000664 1.000776 1.000317 0.9997917 0.999678 1.000146 1.000324 0.9999493 0.9996172 0.9993023 0.9994155 0.9997436 0.9997634 0.9999785 1.000272 0.999671 0.999897 0.999749 0.9997044 0.9998568 1.000299 0.9999662 0.9994312 0.9995321 0.9995447 0.9980612 0.998364 0.9986499 0.9990684 0.9995601 0.9998463 0.9991894 0.9990306 0.9995159 0.9996227 0.9991452 0.9994898 0.9989122 0.9988641 0.9995672 1.000403 1.000487 1.000001 0.9994798 0.999387 0.9998624 1.000042 0.9996678 0.9993494 0.9990385 0.9991366 0.9994498 0.9994853 0.9997087 1.000014 0.9994251 0.9996547 0.9995198 0.9994877 0.9996532 1.000103 0.999774 0.9992363 0.9993398 0.9993677 0.9972412 0.9978836 0.9983321 0.9987932 0.9992871 0.999572 0.9989179 0.9987642 0.9992573 0.9993733 0.9989114 0.9992517 0.9986657 0.9986175 0.9993089 1.000143 1.0002 0.999685 0.999164 0.9990911 0.9995759 0.9997563 0.9993845 0.9990791 0.9987742 0.9988584 0.9991565 0.9992115 0.9994423 0.999761 0.9991798 0.9994169 0.9992942 0.9992725 0.9994506 0.9999061 0.9995805 0.99904 0.9991455 0.9991895 0.9964345 0.9974109 0.9980217 0.9985255 0.9990171 0.9992942 0.9986486 0.9984999 0.9989992 0.999125 0.9986756 0.9990185 0.9984217 0.9983689 0.9990504 0.9998811 0.9999122 0.9993697 0.9988518 0.9987997 0.9992896 0.9994695 0.9991015 0.9988077 0.9985098 0.9985779 0.9988607 0.9989369 0.9991784 0.9995053 0.9989346 0.9991738 0.9990628 0.9990535 0.9992433 0.9997072 0.9993849 0.9988412 0.9989491 0.999008 0.9956197 0.9969262 0.9977051 0.9982539 0.9987447 0.9990153 0.9983787 0.9982374 0.9987372 0.9988726 0.9984415 0.998785 0.9981749 0.9981155 0.9987937 0.9996189 0.9996256 0.9990515 0.9985371 0.9985042 0.9989972 0.9991809 0.9988199 0.9985384 0.9982474 0.998299 0.9985647 0.9986652 0.9989107 0.9992459 0.9986854 0.9989316 0.9988317 0.9988328 0.9990376 0.9995092 0.9991887 0.9986424 0.9987532 0.9988289 ]
<!EndOfComponent> 
</Nnet> 
